tree
version=v2
num_class=1
num_tree_per_iteration=1
label_index=0
max_feature_idx=255
objective=regression
feature_names=Column_0 Column_1 Column_2 Column_3 Column_4 Column_5 Column_6 Column_7 Column_8 Column_9 Column_10 Column_11 Column_12 Column_13 Column_14 Column_15 Column_16 Column_17 Column_18 Column_19 Column_20 Column_21 Column_22 Column_23 Column_24 Column_25 Column_26 Column_27 Column_28 Column_29 Column_30 Column_31 Column_32 Column_33 Column_34 Column_35 Column_36 Column_37 Column_38 Column_39 Column_40 Column_41 Column_42 Column_43 Column_44 Column_45 Column_46 Column_47 Column_48 Column_49 Column_50 Column_51 Column_52 Column_53 Column_54 Column_55 Column_56 Column_57 Column_58 Column_59 Column_60 Column_61 Column_62 Column_63 Column_64 Column_65 Column_66 Column_67 Column_68 Column_69 Column_70 Column_71 Column_72 Column_73 Column_74 Column_75 Column_76 Column_77 Column_78 Column_79 Column_80 Column_81 Column_82 Column_83 Column_84 Column_85 Column_86 Column_87 Column_88 Column_89 Column_90 Column_91 Column_92 Column_93 Column_94 Column_95 Column_96 Column_97 Column_98 Column_99 Column_100 Column_101 Column_102 Column_103 Column_104 Column_105 Column_106 Column_107 Column_108 Column_109 Column_110 Column_111 Column_112 Column_113 Column_114 Column_115 Column_116 Column_117 Column_118 Column_119 Column_120 Column_121 Column_122 Column_123 Column_124 Column_125 Column_126 Column_127 Column_128 Column_129 Column_130 Column_131 Column_132 Column_133 Column_134 Column_135 Column_136 Column_137 Column_138 Column_139 Column_140 Column_141 Column_142 Column_143 Column_144 Column_145 Column_146 Column_147 Column_148 Column_149 Column_150 Column_151 Column_152 Column_153 Column_154 Column_155 Column_156 Column_157 Column_158 Column_159 Column_160 Column_161 Column_162 Column_163 Column_164 Column_165 Column_166 Column_167 Column_168 Column_169 Column_170 Column_171 Column_172 Column_173 Column_174 Column_175 Column_176 Column_177 Column_178 Column_179 Column_180 Column_181 Column_182 Column_183 Column_184 Column_185 Column_186 Column_187 Column_188 Column_189 Column_190 Column_191 Column_192 Column_193 Column_194 Column_195 Column_196 Column_197 Column_198 Column_199 Column_200 Column_201 Column_202 Column_203 Column_204 Column_205 Column_206 Column_207 Column_208 Column_209 Column_210 Column_211 Column_212 Column_213 Column_214 Column_215 Column_216 Column_217 Column_218 Column_219 Column_220 Column_221 Column_222 Column_223 Column_224 Column_225 Column_226 Column_227 Column_228 Column_229 Column_230 Column_231 Column_232 Column_233 Column_234 Column_235 Column_236 Column_237 Column_238 Column_239 Column_240 Column_241 Column_242 Column_243 Column_244 Column_245 Column_246 Column_247 Column_248 Column_249 Column_250 Column_251 Column_252 Column_253 Column_254 Column_255
feature_infos=[0.24803800000000001:1] [0.0061579999999999994:0.21787899999999999] [0.026949000000000001:0.95521299999999987] [0.010099:0.44081599999999999] [0.003578:0.19111600000000001] [0:0.045301000000000001] [0.0078919999999999997:0.38814399999999999] [0:0.76774900000000001] [0.018155000000000001:0.61306800000000006] [0.0092399999999999999:0.39840399999999998] [0.001789:0.063594000000000012] [0.005607:0.76782099999999998] [0:0.080876000000000003] [0.00042900000000000002:0.050533000000000002] [0:0.082986000000000004] [0.00024499999999999999:1] [0.017499000000000001:0.48338000000000003] [0:0.080095] [0.0024190000000000001:0.094786999999999996] [0:0.09529] [0.0047469999999999995:0.49003999999999998] [0:0.048679] [0.0066459999999999991:0.78529099999999996] [0:1] [0:0.24385199999999999] [0.00022000000000000001:0.085127999999999995] [0:0.041324] [0:0.055967999999999997] [0.00022000000000000001:0.10909100000000001] [0.0016579999999999998:0.089492999999999989] [0:0.097480999999999998] [0.0063039999999999997:0.60593399999999997] [0.0017699999999999999:0.18410299999999999] [0:0.061815999999999996] [0:0.12567700000000001] [0.0014199999999999998:0.062772000000000008] [0:0.032506] [0:0.0076340000000000002] [0:0.073797000000000001] [0:0.049569999999999996] [0.009528:0.43068199999999995] [0.00021499999999999999:1] [0.0011800000000000001:0.087540999999999994] [0.00064400000000000004:1] [0:0.069473999999999994] [0.000193:0.08091799999999999] [0:0.10009] [0.0038340000000000002:0.55730600000000008] [0:0.084100999999999995] [0:0.069310999999999998] [0:0.046937] [0:0.028169] [0:0.080212000000000006] [0:0.035161999999999999] [0:0.11532100000000001] [0:0.072210999999999997] [0.00017699999999999999:0.083046999999999996] [0:0.057919000000000005] [0:0.044185000000000002] [0.00054000000000000001:0.044463999999999997] [0:0.10732899999999999] [0.0010890000000000001:0.107556] [0:0.092918000000000001] [0.0069099999999999995:0.35103099999999998] [0.027211000000000003:0.87805800000000001] [0.00157:0.079585000000000003] [0.00056799999999999993:0.64351499999999995] [0.0028779999999999999:0.16266700000000001] [0.00052300000000000003:0.096388000000000001] [0:0.052804999999999998] [0.00052300000000000003:0.11347500000000001] [0:0.065164] [0.0059380000000000006:0.085836999999999997] [0.00080999999999999996:0.096454999999999999] [0:0.024611000000000001] [0.0011609999999999999:0.061928999999999998] [0:0.041329000000000005] [0:0.058446000000000005] [0:0.015403] [0:0.046360999999999999] [0.00082899999999999988:0.101202] [0:0.010114] [0:0.026068999999999998] [0:0.018532] [0.00042900000000000002:0.10974600000000001] [0:0.011412] [0.00083100000000000003:0.068214999999999998] [0:0.038524999999999997] [0:0.032349999999999997] [0:0.025531999999999999] [0:0.0048460000000000005] [0:0.014116999999999999] [0:0.032882000000000002] [0:0.052998000000000003] [0:0.0070470000000000003] [0:0.031966000000000001] [0.0043819999999999996:0.36904199999999998] [0.00072999999999999996:0.055987999999999996] [0.0012880000000000001:0.089317999999999995] [0.0012779999999999998:0.10911300000000002] [0:0.058915999999999996] [0:0.016247999999999999] [0:0.096020000000000008] [0:0.066944000000000004] [0.003728:0.806643] [0.0025149999999999999:1] [0.001073:0.060840999999999999] [0.0077250000000000001:0.94668999999999992] [0:0.12073399999999999] [0.00022999999999999998:0.14213599999999998] [0:0.063544000000000003] [0.0098879999999999992:0.30689899999999998] [0:0.084332000000000004] [0:0.031816000000000004] [0:0.018718000000000002] [0:0.040215000000000001] [0:0.059812999999999998] [0:0.016855999999999999] [0:0.085444000000000006] [0:0.070236000000000007] [0.00022000000000000001:0.045087999999999996] [0.00041500000000000006:0.036617000000000004] [0:0.012598] [0:0.040284] [0:0.12010799999999999] [0.001382:0.12854399999999999] [0:0.11108800000000001] [0.0043619999999999996:0.197937] [0.0068180000000000003:0.20760799999999999] [0:0.098652999999999991] [0.0012029999999999999:0.119378] [0:0.086191999999999991] [0:0.073703999999999992] [0:0.010619] [0.001335:0.064166000000000001] [0:0.101136] [0:0.063633000000000009] [0:0.068015999999999993] [0:0.017988000000000001] [0:0.10170499999999999] [0:0.058365] [0:0.022238999999999998] [0:0.028866000000000003] [0:0.103977] [0.012437999999999999:0.40554499999999999] [0:0.096963999999999995] [0.00068899999999999994:0.119558] [0:0.09625800000000001] [0.0010380000000000001:1] [0.00044699999999999997:0.071845000000000006] [0.0023210000000000001:1] [0.0056700000000000006:0.57390200000000002] [0.00022000000000000001:0.060650000000000003] [0:0.104966] [0:0.017795999999999999] [0:0.109053] [0:0.053282000000000003] [0.00021499999999999999:0.076083999999999999] [0.00108:0.032979000000000001] [0.0091190000000000004:0.34177199999999996] [0:0.034483] [0:0.01057] [0:0.064633999999999997] [0:0.077596999999999999] [0:0.0071329999999999996] [0:0.0036630000000000005] [0:0.016431999999999999] [0:0.043973999999999999] [0:0.033898000000000005] [0.00022400000000000002:0.056939999999999998] [0:0.021856999999999998] [0.00041500000000000006:0.10575799999999999] [0:0.017606] [0:0.032647000000000002] [0:0.017215000000000001] [0.0021459999999999999:0.073755999999999988] [0:0.051624000000000003] [0:0.025944999999999999] [0:0.082902000000000003] [0:0.065547000000000008] [0:0.062766000000000002] [0:0.041436000000000001] [0.0011480000000000001:0.11037899999999999] [0.0017589999999999999:0.116477] [0.002039:0.043670999999999995] [0.00042900000000000002:0.054225999999999996] [0:0.069928999999999991] [0.00051900000000000004:0.12663199999999999] [0.00096699999999999998:0.10280399999999999] [0.00042900000000000002:0.69365699999999997] [0.0016069999999999999:0.116477] [0.019750999999999998:0.8468389999999999] [0.0083269999999999993:0.39780799999999999] [0:0.14305599999999999] [0.001934:0.087550000000000003] [0:0.164773] [0.00058399999999999999:0.062315999999999996] [0:0.039072000000000003] [0.0024870000000000001:0.108017] [0:0.15187999999999999] [0:0.069832000000000005] [0:0.13344300000000001] [0:0.014565999999999999] [0:0.10631800000000001] [0:0.029287999999999998] [0:0.053472000000000006] [0:0.025284000000000001] [0:0.085766999999999996] [0.0038340000000000002:0.91370300000000004] [0:0.092614000000000002] [0:0.061275000000000003] [0:0.053409000000000005] [0.001072:1] [0.001565:0.095861000000000002] [0.007378:0.80162200000000006] [0.003104:0.42133900000000002] [0:0.041491] [0:0.086682000000000009] [0:0.010957] [0:0.043749999999999997] [0.00024800000000000001:0.035150000000000001] [0.00054100000000000003:0.12470000000000001] [0:0.036241000000000002] [0.0051920000000000004:0.16022700000000001] [0:0.65651400000000004] [0:0.044128000000000001] [0:0.051423000000000003] [0:0.080789] [0:0.048485] [0:0.029700999999999998] [0:0.052686000000000004] [0:0.22947399999999998] [0:1] [0.0053150000000000003:0.55600799999999995] [0:0.029311] [0.006783:0.31354799999999999] [0:0.078014] [0.0045389999999999996:0.10263900000000001] [0:0.054351999999999998] [0.0075299999999999994:0.35257500000000003] [0:1] [0:0.084658999999999998] [0:0.033822999999999999] [0:0.049866000000000001] [0.0018260000000000001:0.66822199999999998] [0.0018260000000000001:0.088175000000000003] [0.0088939999999999991:0.333978] [0.0079810000000000002:0.61167700000000003] [0.0048380000000000003:0.37145900000000004] [0.0010949999999999998:0.31239800000000001] [0:0.021031999999999999] [0.0053100000000000005:0.131942] [0.003189:0.31334600000000001] [0.022762999999999999:0.78571400000000002] [0.0025249999999999999:0.20244999999999999] [0.099837999999999996:1]
tree_sizes=897

Tree=0
num_leaves=11
num_cat=0
split_feature=84 159 109 232 181 50 129 9 130 1
split_gain=267.558 215.914 64.5289 63.2589 55.4057 17.2097 15.1312 14.1176 10.5446 1.25488
threshold=0.016682000000000006 0.11112850000000001 0.046096500000000006 0.10995700000000001 0.0050265000000000006 0.0035930000000000003 0.022112000000000003 0.15096500000000004 0.0086085000000000033 0.028153000000000001
decision_type=2 2 2 2 2 2 2 2 2 2
left_child=4 3 6 -2 8 -4 -3 -5 -1 -6
right_child=1 2 5 7 9 -7 -8 -9 -10 -11
leaf_value=3.5113636363636362 3.470945945945946 3.5232142857142859 3.5150000000000001 3.375 3.625 3.4574324324324324 3.5722222222222224 3.4249999999999998 3.5597826086956523 3.6074999999999999
leaf_count=22 37 28 20 48 21 37 36 20 23 20
internal_value=0 -0.584071 0.326446 -1.63333 1.48837 -0.447368 1.01562 -2.20588 0.722222 2.32927
internal_count=312 226 121 105 86 57 64 68 45 41
shrinkage=1


end of trees

feature importances:
Column_1=1
Column_9=1
Column_50=1
Column_84=1
Column_109=1
Column_129=1
Column_130=1
Column_159=1
Column_181=1
Column_232=1

parameters:
[boosting: gbdt]
[objective: regression]
[metric: l2,auc]
[tree_learner: serial]
[device_type: cpu]
[data: ]
[valid: ]
[num_iterations: 100]
[learning_rate: 0.05]
[num_leaves: 31]
[num_threads: 0]
[max_depth: -1]
[min_data_in_leaf: 20]
[min_sum_hessian_in_leaf: 0.001]
[bagging_fraction: 0.8]
[bagging_freq: 5]
[bagging_seed: 3]
[feature_fraction: 0.9]
[feature_fraction_seed: 2]
[early_stopping_round: 0]
[max_delta_step: 0]
[lambda_l1: 0]
[lambda_l2: 0]
[min_gain_to_split: 0]
[drop_rate: 0.1]
[max_drop: 50]
[skip_drop: 0.5]
[xgboost_dart_mode: 0]
[uniform_drop: 0]
[drop_seed: 4]
[top_rate: 0.2]
[other_rate: 0.1]
[min_data_per_group: 100]
[max_cat_threshold: 32]
[cat_l2: 10]
[cat_smooth: 10]
[max_cat_to_onehot: 4]
[top_k: 20]
[monotone_constraints: ]
[feature_contri: ]
[forcedsplits_filename: ]
[refit_decay_rate: 0.9]
[verbosity: 1]
[max_bin: 255]
[min_data_in_bin: 3]
[bin_construct_sample_cnt: 200000]
[histogram_pool_size: -1]
[data_random_seed: 1]
[output_model: LightGBM_model.txt]
[snapshot_freq: -1]
[input_model: ]
[output_result: LightGBM_predict_result.txt]
[initscore_filename: ]
[valid_data_initscores: ]
[pre_partition: 0]
[enable_bundle: 1]
[max_conflict_rate: 0]
[is_enable_sparse: 1]
[sparse_threshold: 0.8]
[use_missing: 1]
[zero_as_missing: 0]
[two_round: 0]
[save_binary: 0]
[enable_load_from_binary_file: 1]
[header: 0]
[label_column: ]
[weight_column: ]
[group_column: ]
[ignore_column: ]
[categorical_feature: ]
[predict_raw_score: 0]
[predict_leaf_index: 0]
[predict_contrib: 0]
[num_iteration_predict: -1]
[pred_early_stop: 0]
[pred_early_stop_freq: 10]
[pred_early_stop_margin: 10]
[convert_model_language: ]
[convert_model: gbdt_prediction.cpp]
[num_class: 1]
[is_unbalance: 0]
[scale_pos_weight: 1]
[sigmoid: 1]
[boost_from_average: 1]
[reg_sqrt: 0]
[alpha: 0.9]
[fair_c: 1]
[poisson_max_delta_step: 0.7]
[tweedie_variance_power: 1.5]
[max_position: 20]
[label_gain: ]
[metric_freq: 1]
[is_provide_training_metric: 0]
[eval_at: ]
[num_machines: 1]
[local_listen_port: 12400]
[time_out: 120]
[machine_list_filename: ]
[machines: ]
[gpu_platform_id: -1]
[gpu_device_id: -1]
[gpu_use_dp: 0]

end of parameters

pandas_categorical:null
