tree
version=v2
num_class=1
num_tree_per_iteration=1
label_index=0
max_feature_idx=255
objective=regression
feature_names=Column_0 Column_1 Column_2 Column_3 Column_4 Column_5 Column_6 Column_7 Column_8 Column_9 Column_10 Column_11 Column_12 Column_13 Column_14 Column_15 Column_16 Column_17 Column_18 Column_19 Column_20 Column_21 Column_22 Column_23 Column_24 Column_25 Column_26 Column_27 Column_28 Column_29 Column_30 Column_31 Column_32 Column_33 Column_34 Column_35 Column_36 Column_37 Column_38 Column_39 Column_40 Column_41 Column_42 Column_43 Column_44 Column_45 Column_46 Column_47 Column_48 Column_49 Column_50 Column_51 Column_52 Column_53 Column_54 Column_55 Column_56 Column_57 Column_58 Column_59 Column_60 Column_61 Column_62 Column_63 Column_64 Column_65 Column_66 Column_67 Column_68 Column_69 Column_70 Column_71 Column_72 Column_73 Column_74 Column_75 Column_76 Column_77 Column_78 Column_79 Column_80 Column_81 Column_82 Column_83 Column_84 Column_85 Column_86 Column_87 Column_88 Column_89 Column_90 Column_91 Column_92 Column_93 Column_94 Column_95 Column_96 Column_97 Column_98 Column_99 Column_100 Column_101 Column_102 Column_103 Column_104 Column_105 Column_106 Column_107 Column_108 Column_109 Column_110 Column_111 Column_112 Column_113 Column_114 Column_115 Column_116 Column_117 Column_118 Column_119 Column_120 Column_121 Column_122 Column_123 Column_124 Column_125 Column_126 Column_127 Column_128 Column_129 Column_130 Column_131 Column_132 Column_133 Column_134 Column_135 Column_136 Column_137 Column_138 Column_139 Column_140 Column_141 Column_142 Column_143 Column_144 Column_145 Column_146 Column_147 Column_148 Column_149 Column_150 Column_151 Column_152 Column_153 Column_154 Column_155 Column_156 Column_157 Column_158 Column_159 Column_160 Column_161 Column_162 Column_163 Column_164 Column_165 Column_166 Column_167 Column_168 Column_169 Column_170 Column_171 Column_172 Column_173 Column_174 Column_175 Column_176 Column_177 Column_178 Column_179 Column_180 Column_181 Column_182 Column_183 Column_184 Column_185 Column_186 Column_187 Column_188 Column_189 Column_190 Column_191 Column_192 Column_193 Column_194 Column_195 Column_196 Column_197 Column_198 Column_199 Column_200 Column_201 Column_202 Column_203 Column_204 Column_205 Column_206 Column_207 Column_208 Column_209 Column_210 Column_211 Column_212 Column_213 Column_214 Column_215 Column_216 Column_217 Column_218 Column_219 Column_220 Column_221 Column_222 Column_223 Column_224 Column_225 Column_226 Column_227 Column_228 Column_229 Column_230 Column_231 Column_232 Column_233 Column_234 Column_235 Column_236 Column_237 Column_238 Column_239 Column_240 Column_241 Column_242 Column_243 Column_244 Column_245 Column_246 Column_247 Column_248 Column_249 Column_250 Column_251 Column_252 Column_253 Column_254 Column_255
feature_infos=[0.24803800000000001:1] [0.0061579999999999994:0.21787899999999999] [0.026949000000000001:0.91339799999999993] [0.010099:0.39413999999999999] [0.003578:0.18745000000000001] [0:0.045301000000000001] [0.0078919999999999997:0.39931100000000003] [0:0.76774900000000001] [0.018155000000000001:0.63781599999999994] [0.0092399999999999999:0.36426599999999998] [0.001789:0.063594000000000012] [0.005607:0.86535799999999996] [0:0.080876000000000003] [0.00042900000000000002:0.050533000000000002] [0:0.098619000000000012] [0.00024499999999999999:1] [0.017506999999999998:0.48338000000000003] [0:0.080095] [0.0024190000000000001:0.0964] [0:0.09529] [0.0047469999999999995:0.56009300000000006] [0.00017699999999999999:0.048679] [0.0066459999999999991:0.86676000000000009] [0:1] [0:0.24385199999999999] [0:0.085127999999999995] [0:0.036400000000000002] [0:0.055967999999999997] [0.00022000000000000001:0.10778199999999999] [0.0016579999999999998:0.089492999999999989] [0.00030699999999999998:0.097480999999999998] [0.0061349999999999998:0.63708100000000001] [0.0017699999999999999:0.17165999999999998] [0:0.061815999999999996] [0:0.12567700000000001] [0.00085700000000000001:0.062772000000000008] [0:0.032310000000000005] [0:0.012456999999999999] [0:0.073797000000000001] [0:0.049803] [0.009528:0.33876400000000001] [0.00058:1] [0.00080899999999999993:0.087540999999999994] [0.0010380000000000001:1] [0:0.069473999999999994] [0.000193:0.068724000000000007] [0:0.10009] [0.0038340000000000002:0.52342200000000005] [0:0.084100999999999995] [0:0.069310999999999998] [0:0.046937] [0:0.028169] [0:0.080212000000000006] [0:0.033704999999999999] [0:0.11532100000000001] [0:0.068044000000000007] [0.00017699999999999999:0.089551999999999993] [0.00059800000000000001:0.057919000000000005] [0:0.044185000000000002] [0.00054000000000000001:0.044463999999999997] [0.00068099999999999996:0.10732899999999999] [0.0010890000000000001:0.107556] [0:0.082117999999999997] [0.0069099999999999995:0.31772800000000001] [0.027211000000000003:0.87805800000000001] [0.00157:0.079585000000000003] [0.00077099999999999998:0.64351499999999995] [0.0028779999999999999:0.16266700000000001] [0.00052300000000000003:0.093810000000000004] [0:0.052804999999999998] [0.00052300000000000003:0.11347500000000001] [0:0.068302000000000002] [0.0059380000000000006:0.081204999999999999] [0.00080999999999999996:0.095488000000000003] [0:0.024611000000000001] [0.0011609999999999999:0.061928999999999998] [0:0.041329000000000005] [0:0.058446000000000005] [0:0.015403] [0:0.04931] [0.00082899999999999988:0.101202] [0:0.011198] [0:0.028929000000000003] [0:0.018532] [0.00035399999999999999:0.10974600000000001] [0:0.011412] [0.000466:0.068214999999999998] [0:0.038524999999999997] [0:0.032349999999999997] [0:0.025531999999999999] [0:0.0034069999999999999] [0:0.0054510000000000001] [0:0.032882000000000002] [0:0.052998000000000003] [0:0.0098340000000000007] [0:0.032242] [0.0043819999999999996:0.36904199999999998] [0.00072999999999999996:0.055987999999999996] [0.0013079999999999999:0.089317999999999995] [0.0012779999999999998:0.097953999999999999] [0:0.04913] [0:0.016247999999999999] [0:0.097241999999999995] [0:0.066944000000000004] [0.003728:0.99719500000000005] [0.0025149999999999999:1] [0.0012460000000000001:0.060840999999999999] [0.0079059999999999998:0.88551499999999994] [0.00021400000000000002:0.12073399999999999] [0.00022999999999999998:0.14213599999999998] [0:0.063544000000000003] [0.0098879999999999992:0.274455] [0:0.084332000000000004] [0:0.026445999999999997] [0:0.018718000000000002] [0:0.040215000000000001] [0:0.059812999999999998] [0:0.018915999999999999] [0:0.072016999999999998] [0:0.076427999999999996] [0.00022000000000000001:0.072488999999999998] [0.00041500000000000006:0.036797000000000003] [0:0.012598] [0:0.040284] [0:0.12010799999999999] [0.00042900000000000002:0.12854399999999999] [0:0.11108800000000001] [0.0043619999999999996:0.18526300000000001] [0.0068180000000000003:0.20591999999999999] [0:0.098652999999999991] [0.0012029999999999999:0.119378] [0:0.086191999999999991] [0:0.073703999999999992] [0:0.010619] [0.001335:0.064074999999999993] [0:0.10286300000000001] [0:0.056092999999999997] [0:0.068015999999999993] [0:0.017988000000000001] [0:0.074395000000000003] [0:0.056523000000000004] [0:0.022238999999999998] [0:0.020202000000000001] [0:0.100271] [0.012437999999999999:0.36332199999999998] [0:0.096963999999999995] [0.00068899999999999994:0.119558] [0:0.09625800000000001] [0.0010380000000000001:1] [0.00044699999999999997:0.071845000000000006] [0.0023210000000000001:1] [0.0056700000000000006:0.57390200000000002] [0.00022000000000000001:0.057321000000000004] [0:0.100134] [0:0.017795999999999999] [0:0.109053] [0.00041500000000000006:0.053282000000000003] [0.00041500000000000006:0.076083999999999999] [0.00108:0.034995999999999999] [0.0091190000000000004:0.34177199999999996] [0:0.030907999999999998] [0:0.01057] [0:0.064633999999999997] [0:0.077596999999999999] [0:0.0071329999999999996] [0:0.0036630000000000005] [0:0.016431999999999999] [0:0.042023999999999999] [0:0.029352999999999997] [0:0.058895000000000003] [0:0.021856999999999998] [0.00041500000000000006:0.089521000000000003] [0:0.018549] [0:0.032647000000000002] [0:0.017215000000000001] [0.0027000000000000001:0.090644000000000002] [0:0.051624000000000003] [0:0.025944999999999999] [0:0.082902000000000003] [0:0.065547000000000008] [0:0.066872000000000001] [0:0.041436000000000001] [0.0011480000000000001:0.11037899999999999] [0.0017589999999999999:0.112701] [0.002039:0.043670999999999995] [0.00052300000000000003:0.054225999999999996] [0:0.069928999999999991] [0.00042900000000000002:0.12663199999999999] [0.00096699999999999998:0.10280399999999999] [0.00080899999999999993:0.69365699999999997] [0.0016069999999999999:0.116477] [0.020146999999999998:0.8468389999999999] [0.0083269999999999993:0.38752600000000004] [0:0.11235000000000001] [0.001934:0.087550000000000003] [0:0.12790699999999999] [0.00058399999999999999:0.064722000000000002] [0:0.046663999999999997] [0.0024870000000000001:0.108017] [0:0.15187999999999999] [0:0.069832000000000005] [0:0.13344300000000001] [0:0.014565999999999999] [0:0.070013999999999993] [0:0.023536000000000001] [0:0.053472000000000006] [0:0.022053] [0:0.096012] [0.0038340000000000002:0.99228600000000011] [0:0.057435] [0:0.061275000000000003] [0:0.045709] [0.001072:1] [0.00093300000000000002:0.09626599999999999] [0.007378:0.91142400000000001] [0.003104:0.371062] [0:0.041491] [0:0.079690999999999998] [0:0.0052310000000000004] [0:0.034467999999999999] [0:0.035150000000000001] [0.00035399999999999999:0.12470000000000001] [0:0.035545] [0.0051920000000000004:0.161027] [0:0.70687200000000006] [0:0.054809000000000004] [0:0.051423000000000003] [0:0.097015000000000004] [0:0.048113999999999997] [0:0.029700999999999998] [0:0.068912000000000001] [0:0.22947399999999998] [0:1] [0.0053150000000000003:0.55600799999999995] [0:0.029311] [0.006783:0.25933499999999998] [0:0.068270000000000011] [0.0045389999999999996:0.10263900000000001] [0:0.054351999999999998] [0.0075299999999999994:0.41721099999999994] [0.00022000000000000001:1] [0:0.060489000000000001] [0:0.033822999999999999] [0:0.056014999999999995] [0.0018260000000000001:0.59470500000000004] [0.0018260000000000001:0.088175000000000003] [0.0088939999999999991:0.32001399999999997] [0.0085050000000000004:0.630131] [0.0048380000000000003:0.37145900000000004] [0.0010949999999999998:0.31239800000000001] [0:0.021597000000000002] [0.0053100000000000005:0.146564] [0.003189:0.281385] [0.022762999999999999:0.78150200000000003] [0.0025249999999999999:0.18357899999999999] [0.11977599999999999:1]
tree_sizes=988

Tree=0
num_leaves=13
num_cat=0
split_feature=1 159 84 190 57 240 31 163 122 137 7 1
split_gain=262.998 233.436 92.5363 64.833 43.3195 25.9058 20.1175 9.30219 8.7037 3.4024 1.33636 0.113043
threshold=0.070070000000000007 0.10961000000000003 0.015246000000000003 0.033278500000000009 0.0081145000000000019 0.18032350000000005 0.15659600000000004 0.0027875000000000005 0.0015190000000000002 0.023160500000000004 0.020631 0.1239185
decision_type=2 2 2 2 2 2 2 2 2 2 2 2
left_child=4 2 -2 6 -1 9 -3 -8 -5 -4 -6 -7
right_child=1 3 5 8 10 11 7 -9 -10 -11 -12 -13
leaf_value=3.5297619047619047 3.5225 3.5110000000000001 3.4185483870967741 3.5 3.625 3.375 3.5459677419354838 3.5861111111111112 3.4564814814814815 3.4449999999999998 3.6074999999999999 3.3799999999999999
leaf_count=21 20 25 31 20 24 26 31 27 27 20 20 20
internal_value=0 -0.483806 -1.50855 0.438462 1.77692 -1.91237 0.96988 1.2931 -0.5 -1.42157 2.34091 -2.45652
internal_count=312 247 117 130 65 97 83 58 47 51 44 46
shrinkage=1


end of trees

feature importances:
Column_1=2
Column_7=1
Column_31=1
Column_57=1
Column_84=1
Column_122=1
Column_137=1
Column_159=1
Column_163=1
Column_190=1
Column_240=1

parameters:
[boosting: gbdt]
[objective: regression]
[metric: l2,auc]
[tree_learner: serial]
[device_type: cpu]
[data: ]
[valid: ]
[num_iterations: 100]
[learning_rate: 0.05]
[num_leaves: 31]
[num_threads: 0]
[max_depth: -1]
[min_data_in_leaf: 20]
[min_sum_hessian_in_leaf: 0.001]
[bagging_fraction: 0.8]
[bagging_freq: 5]
[bagging_seed: 3]
[feature_fraction: 0.9]
[feature_fraction_seed: 2]
[early_stopping_round: 0]
[max_delta_step: 0]
[lambda_l1: 0]
[lambda_l2: 0]
[min_gain_to_split: 0]
[drop_rate: 0.1]
[max_drop: 50]
[skip_drop: 0.5]
[xgboost_dart_mode: 0]
[uniform_drop: 0]
[drop_seed: 4]
[top_rate: 0.2]
[other_rate: 0.1]
[min_data_per_group: 100]
[max_cat_threshold: 32]
[cat_l2: 10]
[cat_smooth: 10]
[max_cat_to_onehot: 4]
[top_k: 20]
[monotone_constraints: ]
[feature_contri: ]
[forcedsplits_filename: ]
[refit_decay_rate: 0.9]
[verbosity: 1]
[max_bin: 255]
[min_data_in_bin: 3]
[bin_construct_sample_cnt: 200000]
[histogram_pool_size: -1]
[data_random_seed: 1]
[output_model: LightGBM_model.txt]
[snapshot_freq: -1]
[input_model: ]
[output_result: LightGBM_predict_result.txt]
[initscore_filename: ]
[valid_data_initscores: ]
[pre_partition: 0]
[enable_bundle: 1]
[max_conflict_rate: 0]
[is_enable_sparse: 1]
[sparse_threshold: 0.8]
[use_missing: 1]
[zero_as_missing: 0]
[two_round: 0]
[save_binary: 0]
[enable_load_from_binary_file: 1]
[header: 0]
[label_column: ]
[weight_column: ]
[group_column: ]
[ignore_column: ]
[categorical_feature: ]
[predict_raw_score: 0]
[predict_leaf_index: 0]
[predict_contrib: 0]
[num_iteration_predict: -1]
[pred_early_stop: 0]
[pred_early_stop_freq: 10]
[pred_early_stop_margin: 10]
[convert_model_language: ]
[convert_model: gbdt_prediction.cpp]
[num_class: 1]
[is_unbalance: 0]
[scale_pos_weight: 1]
[sigmoid: 1]
[boost_from_average: 1]
[reg_sqrt: 0]
[alpha: 0.9]
[fair_c: 1]
[poisson_max_delta_step: 0.7]
[tweedie_variance_power: 1.5]
[max_position: 20]
[label_gain: ]
[metric_freq: 1]
[is_provide_training_metric: 0]
[eval_at: ]
[num_machines: 1]
[local_listen_port: 12400]
[time_out: 120]
[machine_list_filename: ]
[machines: ]
[gpu_platform_id: -1]
[gpu_device_id: -1]
[gpu_use_dp: 0]

end of parameters

pandas_categorical:null
